<?xml version="1.0"?>
<opencv_storage>
<cascade>
  <stageType>BOOST</stageType>
  <featureType>HAAR</featureType>
  <height>24</height>
  <width>24</width>
  <stageParams>
    <boostType>GAB</boostType>
    <minHitRate>9.9500000476837158e-01</minHitRate>
    <maxFalseAlarm>5.0000000000000000e-01</maxFalseAlarm>
    <weightTrimRate>9.4999999999999996e-01</weightTrimRate>
    <maxDepth>1</maxDepth>
    <maxWeakCount>100</maxWeakCount></stageParams>
  <featureParams>
    <maxCatCount>0</maxCatCount>
    <featSize>1</featSize>
    <mode>BASIC</mode></featureParams>
  <stageNum>3</stageNum>
  <stages>
    <!-- stage 0 -->
    <_>
      <maxWeakCount>1</maxWeakCount>
      <stageThreshold>9.1836732625961304e-01</stageThreshold>
      <weakClassifiers>
        <_>
          <internalNodes>
            0 -1 3 -1.7861027270555496e-02</internalNodes>
          <leafValues>
            9.1836732625961304e-01 -1.</leafValues></_></weakClassifiers></_>
    <!-- stage 1 -->
    <_>
      <maxWeakCount>2</maxWeakCount>
      <stageThreshold>-1.4304000139236450e-01</stageThreshold>
      <weakClassifiers>
        <_>
          <internalNodes>
            0 -1 0 8.8476046919822693e-02</internalNodes>
          <leafValues>
            -9.7468352317810059e-01 8.6301368474960327e-01</leafValues></_>
        <_>
          <internalNodes>
            0 -1 2 -3.1371735036373138e-02</internalNodes>
          <leafValues>
            8.3164352178573608e-01 -9.8978996276855469e-01</leafValues></_></weakClassifiers></_>
    <!-- stage 2 -->
    <_>
      <maxWeakCount>2</maxWeakCount>
      <stageThreshold>-2.2321210801601410e-01</stageThreshold>
      <weakClassifiers>
        <_>
          <internalNodes>
            0 -1 4 -8.2663968205451965e-02</internalNodes>
          <leafValues>
            8.1081080436706543e-01 -9.6437656879425049e-01</leafValues></_>
        <_>
          <internalNodes>
            0 -1 1 3.3502853475511074e-03</internalNodes>
          <leafValues>
            -9.5844554901123047e-01 7.4116444587707520e-01</leafValues></_></weakClassifiers></_></stages>
  <features>
    <_>
      <rects>
        <_>
          1 0 10 7 -1.</_>
        <_>
          6 0 5 7 2.</_></rects>
      <tilted>0</tilted></_>
    <_>
      <rects>
        <_>
          8 10 1 4 -1.</_>
        <_>
          8 12 1 2 2.</_></rects>
      <tilted>0</tilted></_>
    <_>
      <rects>
        <_>
          11 5 2 16 -1.</_>
        <_>
          11 13 2 8 2.</_></rects>
      <tilted>0</tilted></_>
    <_>
      <rects>
        <_>
          15 3 1 12 -1.</_>
        <_>
          15 7 1 4 3.</_></rects>
      <tilted>0</tilted></_>
    <_>
      <rects>
        <_>
          16 3 8 11 -1.</_>
        <_>
          20 3 4 11 2.</_></rects>
      <tilted>0</tilted></_></features></cascade>
</opencv_storage>
