<?xml version="1.0"?>
<opencv_storage>
<cascade>
  <stageType>BOOST</stageType>
  <featureType>HAAR</featureType>
  <height>24</height>
  <width>24</width>
  <stageParams>
    <boostType>GAB</boostType>
    <minHitRate>9.9500000476837158e-01</minHitRate>
    <maxFalseAlarm>5.0000000000000000e-01</maxFalseAlarm>
    <weightTrimRate>9.4999999999999996e-01</weightTrimRate>
    <maxDepth>1</maxDepth>
    <maxWeakCount>100</maxWeakCount></stageParams>
  <featureParams>
    <maxCatCount>0</maxCatCount>
    <featSize>1</featSize>
    <mode>BASIC</mode></featureParams>
  <stageNum>3</stageNum>
  <stages>
    <!-- stage 0 -->
    <_>
      <maxWeakCount>2</maxWeakCount>
      <stageThreshold>-9.4362050294876099e-02</stageThreshold>
      <weakClassifiers>
        <_>
          <internalNodes>
            0 -1 0 3.5890474915504456e-02</internalNodes>
          <leafValues>
            -9.6984922885894775e-01 8.8732391595840454e-01</leafValues></_>
        <_>
          <internalNodes>
            0 -1 2 1.0411988012492657e-02</internalNodes>
          <leafValues>
            -9.7022962570190430e-01 8.7548720836639404e-01</leafValues></_></weakClassifiers></_>
    <!-- stage 1 -->
    <_>
      <maxWeakCount>1</maxWeakCount>
      <stageThreshold>8.3006536960601807e-01</stageThreshold>
      <weakClassifiers>
        <_>
          <internalNodes>
            0 -1 3 6.7086458206176758e-02</internalNodes>
          <leafValues>
            -1. 8.3006536960601807e-01</leafValues></_></weakClassifiers></_>
    <!-- stage 2 -->
    <_>
      <maxWeakCount>2</maxWeakCount>
      <stageThreshold>-9.5595248043537140e-02</stageThreshold>
      <weakClassifiers>
        <_>
          <internalNodes>
            0 -1 1 -2.8050157427787781e-01</internalNodes>
          <leafValues>
            8.5034012794494629e-01 -9.7964376211166382e-01</leafValues></_>
        <_>
          <internalNodes>
            0 -1 4 2.1515732631087303e-02</internalNodes>
          <leafValues>
            -9.4593536853790283e-01 9.2118519544601440e-01</leafValues></_></weakClassifiers></_></stages>
  <features>
    <_>
      <rects>
        <_>
          1 21 21 1 -1.</_>
        <_>
          8 21 7 1 3.</_></rects>
      <tilted>0</tilted></_>
    <_>
      <rects>
        <_>
          3 3 20 19 -1.</_>
        <_>
          13 3 10 19 2.</_></rects>
      <tilted>0</tilted></_>
    <_>
      <rects>
        <_>
          8 7 1 8 -1.</_>
        <_>
          8 11 1 4 2.</_></rects>
      <tilted>0</tilted></_>
    <_>
      <rects>
        <_>
          10 0 9 8 -1.</_>
        <_>
          10 4 9 4 2.</_></rects>
      <tilted>0</tilted></_>
    <_>
      <rects>
        <_>
          17 4 1 14 -1.</_>
        <_>
          17 11 1 7 2.</_></rects>
      <tilted>0</tilted></_></features></cascade>
</opencv_storage>
